[
    {
        "weights": [
            -17,
            -11,
            -6,
            -40,
            -53,
            33,
            38,
            82,
            52,
            -84,
            -10,
            76,
            43,
            -28,
            232,
            64,
            49,
            14,
            -87,
            15,
            2,
            -39,
            53,
            -77,
            81,
            -62,
            -23,
            65,
            54,
            16,
            87,
            -69,
            63,
            9,
            -232,
            -240,
            -25,
            -310,
            -433,
            -123,
            -154,
            -553,
            -2,
            -108,
            385,
            -419,
            -355,
            -309,
            -259,
            -253,
            -186,
            -92,
            -30,
            -53,
            -38,
            27,
            -72,
            -41,
            56,
            33,
            -178,
            -39,
            -249,
            -200,
            -250,
            163,
            -165,
            71,
            -131,
            -160,
            -80,
            -156,
            -81,
            -276,
            -243,
            -311,
            -81,
            -14,
            -324,
            -283,
            141,
            208,
            -82,
            -5,
            -50,
            18,
            -101,
            -65,
            -64,
            73,
            -295,
            -79,
            -102,
            88,
            37,
            88,
            1,
            -61,
            53,
            -63,
            144,
            45,
            11,
            -187,
            -263,
            -336,
            -252,
            -130,
            -180,
            -79,
            1,
            62,
            22,
            71,
            -55,
            -41,
            -287,
            -18,
            185,
            52,
            33,
            234,
            124,
            24,
            171,
            143,
            95,
            118,
            69,
            2,
            32,
            -80,
            85,
            -161,
            -122,
            -289,
            -232,
            -116,
            -45,
            28,
            10,
            47,
            20,
            -38,
            101,
            -95,
            -127,
            18,
            0,
            11,
            60,
            345,
            280,
            167,
            188,
            143,
            155,
            192,
            104,
            37,
            0,
            -83,
            -8,
            -77,
            -230,
            -310,
            -112,
            65,
            -6,
            -4,
            -330,
            192,
            -126,
            -14,
            3,
            5,
            115,
            81,
            79,
            117,
            158,
            301,
            268,
            283,
            185,
            210,
            116,
            -42,
            -86,
            -142,
            -99,
            -160,
            -393,
            -114,
            -80,
            -129,
            -65,
            -69,
            28,
            127,
            237,
            71,
            175,
            -60,
            91,
            57,
            65,
            123,
            66,
            244,
            206,
            207,
            220,
            46,
            -13,
            51,
            -84,
            -37,
            64,
            -293,
            -85,
            -117,
            -118,
            254,
            18,
            -267,
            129,
            83,
            291,
            24,
            -6,
            -45,
            58,
            33,
            96,
            -9,
            -59,
            97,
            174,
            190,
            146,
            27,
            -13,
            62,
            -54,
            -17,
            -84,
            -113,
            -263,
            -116,
            -182,
            143,
            59,
            -325,
            -247,
            110,
            79,
            124,
            -7,
            32,
            -106,
            -18,
            0,
            -135,
            -146,
            52,
            42,
            37,
            109,
            110,
            165,
            137,
            93,
            -41,
            -107,
            50,
            -211,
            -169,
            -77,
            -114,
            -249,
            -420,
            13,
            140,
            -76,
            150,
            230,
            -74,
            -184,
            -121,
            -78,
            -137,
            -151,
            -359,
            -211,
            -134,
            -39,
            156,
            60,
            103,
            68,
            -1,
            149,
            -267,
            -321,
            -290,
            -168,
            139,
            -134,
            -324,
            -154,
            246,
            -276,
            48,
            30,
            17,
            -1,
            -31,
            -197,
            -69,
            -271,
            -493,
            -383,
            -206,
            -70,
            67,
            30,
            145,
            241,
            221,
            168,
            -83,
            -315,
            -189,
            -204,
            -279,
            -21,
            -239,
            79,
            -185,
            -162,
            68,
            -81,
            -206,
            -95,
            -60,
            -71,
            -154,
            -204,
            -222,
            -173,
            -299,
            -161,
            36,
            -6,
            226,
            150,
            180,
            177,
            139,
            195,
            273,
            215,
            -164,
            -37,
            27,
            -320,
            -35,
            -176,
            -242,
            -146,
            -194,
            57,
            -25,
            133,
            175,
            -12,
            19,
            13,
            -80,
            -22,
            63,
            115,
            113,
            119,
            42,
            119,
            209,
            241,
            526,
            631,
            444,
            -34,
            31,
            -300,
            17,
            -183,
            1,
            75,
            211,
            50,
            74,
            53,
            154,
            176,
            76,
            -30,
            -19,
            40,
            155,
            223,
            118,
            85,
            110,
            81,
            46,
            186,
            265,
            451,
            4,
            -75,
            -200,
            -396,
            210,
            339,
            309,
            246,
            234,
            193,
            264,
            208,
            162,
            84,
            144,
            -89,
            11,
            122,
            175,
            6,
            162,
            20,
            -17,
            90,
            -35,
            116,
            292,
            512,
            284,
            -61,
            -69,
            -259,
            48,
            168,
            304,
            153,
            374,
            156,
            198,
            292,
            162,
            179,
            64,
            65,
            57,
            97,
            420,
            178,
            0,
            103,
            173,
            148,
            104,
            172,
            432,
            539,
            273,
            39,
            21,
            93,
            304,
            159,
            142,
            178,
            167,
            232,
            146,
            210,
            119,
            211,
            57,
            -29,
            150,
            241,
            205,
            116,
            129,
            19,
            48,
            83,
            -31,
            168,
            328,
            428,
            31,
            30,
            -67,
            102,
            -10,
            163,
            150,
            279,
            283,
            140,
            106,
            191,
            76,
            77,
            -10,
            19,
            182,
            284,
            214,
            120,
            144,
            171,
            -34,
            71,
            88,
            270,
            349,
            59,
            280,
            41,
            -106,
            -289,
            -24,
            46,
            85,
            181,
            200,
            44,
            33,
            16,
            -49,
            -67,
            110,
            72,
            114,
            -7,
            148,
            27,
            75,
            117,
            -8,
            11,
            75,
            -51,
            447,
            178,
            138,
            -30,
            283,
            -130,
            -30,
            280,
            219,
            180,
            167,
            58,
            -2,
            -35,
            -10,
            8,
            9,
            -23,
            154,
            67,
            17,
            129,
            44,
            122,
            120,
            -7,
            -28,
            172,
            -49,
            -111,
            -41,
            -9,
            112,
            228,
            218,
            27,
            72,
            8,
            -15,
            -117,
            30,
            -20,
            -22,
            37,
            -57,
            -19,
            -53,
            17,
            71,
            61,
            0,
            -33,
            85,
            16,
            310,
            135,
            151,
            -56,
            -87,
            -55,
            38,
            255,
            267,
            -22,
            -273,
            13,
            -26,
            -4,
            98,
            -4,
            100,
            -6,
            70,
            -124,
            -3,
            25,
            -24,
            39,
            100,
            52,
            22,
            266,
            207,
            131,
            164,
            -107,
            76,
            -55,
            16,
            196,
            364,
            -74,
            -249,
            -174,
            -51,
            132,
            -37,
            58,
            79,
            75,
            80,
            2,
            -81,
            -75,
            -15,
            85,
            176,
            169,
            400,
            546,
            344,
            63,
            83,
            -223,
            -78,
            24,
            -66,
            126,
            -226,
            -143,
            -213,
            -136,
            -78,
            -63,
            35,
            -18,
            -5,
            -31,
            -45,
            -38,
            -41,
            116,
            35,
            190,
            -23,
            143,
            146,
            368,
            -148,
            259,
            355,
            -84,
            36,
            13,
            22,
            -45,
            -163,
            -227,
            82,
            93,
            40,
            -136,
            -184,
            35,
            -31,
            -162,
            15,
            -27,
            5,
            -85,
            -138,
            -284,
            -268,
            -265,
            -310,
            -286,
            -392,
            -167,
            26,
            -33,
            -18,
            -56,
            -5,
            -31,
            37,
            340,
            278,
            271,
            226,
            51,
            -123,
            -16,
            27,
            -75,
            -210,
            -139,
            -401,
            -315,
            -181,
            -69,
            -350,
            -311,
            -40,
            -287,
            -19,
            -49,
            -18,
            -25,
            -8,
            -20,
            53,
            -29,
            75,
            -54,
            -298,
            -359,
            -3,
            -149,
            -199,
            86,
            260,
            38,
            -213,
            148,
            14,
            -20,
            -383,
            114,
            241,
            -19,
            -45,
            -93,
            -70,
            -22,
            7,
            -9,
            -14
        ],
        "bias": -382
    },
    {
        "weights": [
            24,
            25,
            7,
            -54,
            -45,
            -26,
            -72,
            -61,
            34,
            -74,
            -18,
            -27,
            -19,
            -74,
            -235,
            -56,
            -27,
            -35,
            36,
            84,
            -24,
            -21,
            24,
            -28,
            20,
            64,
            -48,
            84,
            49,
            6,
            -1,
            76,
            -35,
            -11,
            30,
            -147,
            -177,
            264,
            384,
            133,
            157,
            366,
            25,
            -67,
            -298,
            222,
            336,
            219,
            294,
            298,
            204,
            -67,
            11,
            50,
            40,
            86,
            -62,
            -28,
            3,
            80,
            159,
            64,
            109,
            72,
            335,
            28,
            252,
            51,
            101,
            -260,
            13,
            -85,
            -26,
            272,
            293,
            195,
            240,
            13,
            420,
            -66,
            -261,
            -234,
            -18,
            -66,
            7,
            -44,
            194,
            -46,
            -65,
            -267,
            4,
            -104,
            -84,
            146,
            -3,
            72,
            4,
            -59,
            53,
            137,
            41,
            26,
            81,
            310,
            228,
            526,
            453,
            200,
            233,
            253,
            -51,
            69,
            -78,
            6,
            -30,
            -72,
            430,
            -358,
            -219,
            128,
            -82,
            -64,
            -66,
            98,
            76,
            -131,
            -31,
            -1,
            84,
            234,
            50,
            117,
            45,
            338,
            375,
            384,
            613,
            294,
            -67,
            84,
            38,
            74,
            2,
            -293,
            -230,
            -288,
            87,
            -148,
            195,
            77,
            175,
            145,
            2,
            -34,
            153,
            119,
            91,
            250,
            117,
            27,
            139,
            -17,
            31,
            315,
            244,
            215,
            42,
            -63,
            21,
            -2,
            270,
            -412,
            -45,
            231,
            98,
            103,
            118,
            159,
            68,
            65,
            200,
            -9,
            41,
            91,
            -18,
            137,
            -80,
            16,
            -12,
            -5,
            73,
            170,
            372,
            50,
            300,
            193,
            -45,
            -381,
            257,
            -108,
            -280,
            151,
            116,
            177,
            110,
            219,
            140,
            140,
            -41,
            40,
            -60,
            -42,
            29,
            -8,
            -19,
            -64,
            15,
            27,
            106,
            195,
            285,
            267,
            287,
            -92,
            59,
            213,
            108,
            -111,
            -147,
            159,
            62,
            68,
            181,
            159,
            118,
            123,
            20,
            -17,
            -186,
            -137,
            -25,
            -85,
            -64,
            6,
            43,
            1,
            -45,
            189,
            436,
            307,
            -108,
            -178,
            -6,
            213,
            458,
            -175,
            -196,
            -6,
            5,
            130,
            175,
            70,
            65,
            11,
            74,
            24,
            -157,
            -312,
            -216,
            -58,
            -60,
            -66,
            66,
            210,
            -44,
            146,
            467,
            105,
            41,
            242,
            160,
            257,
            340,
            -277,
            -100,
            -2,
            -87,
            90,
            132,
            176,
            137,
            103,
            72,
            -49,
            -279,
            -255,
            -200,
            -87,
            -129,
            -59,
            -40,
            31,
            -76,
            88,
            384,
            475,
            324,
            -227,
            185,
            390,
            483,
            -445,
            -30,
            92,
            249,
            205,
            157,
            265,
            223,
            129,
            266,
            -86,
            -315,
            -198,
            24,
            -20,
            -65,
            -95,
            -119,
            -43,
            -304,
            -74,
            121,
            158,
            22,
            275,
            114,
            333,
            336,
            24,
            22,
            -123,
            307,
            295,
            359,
            242,
            216,
            319,
            223,
            -11,
            -248,
            -124,
            -33,
            -27,
            -100,
            -64,
            -90,
            -62,
            -97,
            -211,
            -299,
            -196,
            -186,
            215,
            77,
            206,
            286,
            -120,
            48,
            249,
            314,
            245,
            252,
            290,
            424,
            403,
            177,
            6,
            -163,
            -50,
            -52,
            -38,
            54,
            123,
            211,
            230,
            228,
            12,
            -156,
            -158,
            -167,
            -429,
            52,
            14,
            371,
            -242,
            304,
            280,
            95,
            201,
            162,
            324,
            340,
            378,
            99,
            -16,
            -23,
            -32,
            71,
            147,
            234,
            140,
            253,
            139,
            392,
            140,
            222,
            -169,
            -253,
            -69,
            21,
            -217,
            238,
            2,
            -37,
            113,
            58,
            148,
            235,
            232,
            332,
            234,
            208,
            -2,
            -136,
            117,
            37,
            226,
            224,
            167,
            116,
            145,
            119,
            200,
            -9,
            -357,
            -359,
            -154,
            -38,
            -47,
            -397,
            -87,
            -118,
            36,
            -2,
            -4,
            299,
            76,
            89,
            87,
            145,
            44,
            -55,
            96,
            108,
            299,
            234,
            200,
            178,
            213,
            189,
            -18,
            -124,
            -413,
            -491,
            -320,
            65,
            19,
            -7,
            -299,
            -186,
            67,
            161,
            79,
            23,
            168,
            117,
            140,
            -94,
            -28,
            21,
            164,
            287,
            298,
            263,
            129,
            207,
            177,
            -24,
            -35,
            98,
            -8,
            -608,
            -82,
            -17,
            -44,
            -432,
            -142,
            12,
            22,
            127,
            109,
            48,
            -47,
            43,
            80,
            115,
            -1,
            102,
            185,
            236,
            258,
            96,
            44,
            80,
            95,
            44,
            -133,
            -108,
            -291,
            -339,
            -354,
            -2,
            14,
            274,
            72,
            160,
            38,
            68,
            35,
            -94,
            -76,
            -6,
            141,
            168,
            52,
            126,
            152,
            110,
            -18,
            20,
            62,
            7,
            -44,
            -35,
            -210,
            49,
            85,
            -328,
            -80,
            38,
            100,
            166,
            102,
            -137,
            -17,
            -84,
            -168,
            -53,
            -45,
            -56,
            80,
            83,
            160,
            132,
            143,
            132,
            10,
            18,
            -16,
            -70,
            8,
            157,
            -87,
            -67,
            -5,
            -122,
            -15,
            -9,
            -138,
            -77,
            -336,
            -183,
            -152,
            -316,
            -188,
            -82,
            5,
            -21,
            61,
            275,
            214,
            241,
            184,
            79,
            156,
            -20,
            -47,
            127,
            85,
            81,
            19,
            -124,
            -276,
            276,
            -41,
            9,
            -30,
            -28,
            -447,
            -257,
            -412,
            -351,
            -180,
            -15,
            -51,
            1,
            67,
            314,
            257,
            197,
            186,
            128,
            27,
            20,
            54,
            -118,
            -17,
            -57,
            -65,
            -233,
            -222,
            -182,
            -7,
            65,
            2,
            -323,
            -147,
            -171,
            -152,
            -147,
            -86,
            -107,
            28,
            66,
            49,
            85,
            57,
            257,
            184,
            145,
            41,
            76,
            13,
            -23,
            128,
            -208,
            -61,
            -92,
            197,
            -264,
            -54,
            -53,
            -17,
            -120,
            67,
            -251,
            -94,
            -77,
            6,
            60,
            146,
            136,
            135,
            193,
            244,
            196,
            180,
            98,
            47,
            -56,
            -197,
            -65,
            -246,
            97,
            -45,
            -148,
            -306,
            -20,
            -73,
            -82,
            18,
            80,
            275,
            188,
            -206,
            -244,
            -191,
            -148,
            -51,
            141,
            78,
            36,
            94,
            -110,
            56,
            26,
            3,
            -49,
            -86,
            -219,
            -182,
            44,
            234,
            138,
            -1,
            -85,
            -48,
            -23,
            17,
            5,
            -56,
            -230,
            -252,
            -451,
            -433,
            -341,
            -117,
            -110,
            -5,
            -3,
            -85,
            -169,
            46,
            -162,
            -203,
            -330,
            -160,
            -108,
            -142,
            -169,
            -194,
            83,
            82,
            47,
            41,
            8,
            37,
            23,
            51,
            -32,
            27,
            56,
            -141,
            -125,
            -115,
            -19,
            -156,
            -149,
            353,
            -58,
            -58,
            137,
            304,
            48,
            187,
            166,
            -272,
            -118,
            -72,
            29,
            30,
            -18,
            -8
        ],
        "bias": 696
    },
    {
        "weights": [
            -62,
            64,
            3,
            -79,
            -4,
            50,
            55,
            -45,
            -59,
            -27,
            67,
            8,
            -56,
            -96,
            286,
            82,
            -59,
            -73,
            -17,
            60,
            62,
            4,
            -25,
            -35,
            60,
            -21,
            -64,
            -68,
            70,
            37,
            21,
            76,
            2,
            83,
            -42,
            -209,
            -220,
            -198,
            -246,
            -292,
            -392,
            -420,
            -92,
            30,
            -277,
            -316,
            -376,
            -323,
            -464,
            -262,
            -320,
            -116,
            32,
            2,
            -82,
            4,
            37,
            -35,
            -73,
            26,
            -140,
            -59,
            -148,
            -277,
            -321,
            -432,
            -307,
            -344,
            -207,
            26,
            -514,
            -104,
            58,
            36,
            3,
            -59,
            -248,
            -279,
            -628,
            -358,
            -173,
            -58,
            62,
            -63,
            -78,
            -59,
            -242,
            73,
            -83,
            -255,
            16,
            -413,
            -401,
            -91,
            -225,
            -563,
            -338,
            -124,
            -236,
            -102,
            66,
            -1,
            63,
            -73,
            46,
            -149,
            -73,
            -189,
            -298,
            272,
            -66,
            56,
            -37,
            -48,
            72,
            26,
            -457,
            -102,
            -146,
            -219,
            -133,
            -172,
            -184,
            81,
            44,
            63,
            87,
            74,
            90,
            -87,
            42,
            -51,
            -67,
            -49,
            -213,
            -100,
            184,
            226,
            99,
            -21,
            -18,
            -27,
            -12,
            -302,
            -534,
            -55,
            -133,
            -101,
            -238,
            -78,
            -155,
            219,
            127,
            213,
            37,
            -16,
            28,
            -27,
            -36,
            23,
            -28,
            86,
            73,
            36,
            -106,
            48,
            -36,
            -5,
            -78,
            -6,
            -280,
            -357,
            -292,
            -98,
            -435,
            -129,
            -193,
            131,
            47,
            181,
            183,
            232,
            347,
            209,
            272,
            127,
            236,
            108,
            45,
            -28,
            -82,
            -268,
            303,
            62,
            22,
            -167,
            1,
            -232,
            -456,
            -425,
            -674,
            -392,
            -225,
            -166,
            147,
            106,
            148,
            142,
            251,
            251,
            311,
            187,
            353,
            97,
            35,
            63,
            163,
            8,
            -63,
            -106,
            -64,
            123,
            -123,
            -146,
            -53,
            -170,
            -355,
            -569,
            -585,
            -229,
            -195,
            -79,
            83,
            -88,
            -37,
            6,
            -67,
            151,
            239,
            77,
            28,
            12,
            -56,
            30,
            -47,
            79,
            -100,
            -66,
            126,
            275,
            370,
            -6,
            63,
            -329,
            -578,
            -172,
            -266,
            -60,
            42,
            11,
            73,
            80,
            59,
            121,
            108,
            67,
            80,
            140,
            -51,
            -56,
            -78,
            -122,
            -41,
            -3,
            62,
            59,
            242,
            380,
            200,
            -342,
            -134,
            13,
            -451,
            -296,
            -255,
            -177,
            100,
            123,
            156,
            80,
            48,
            20,
            -30,
            -86,
            59,
            121,
            -100,
            -146,
            -197,
            -227,
            -279,
            -173,
            -189,
            171,
            246,
            636,
            394,
            81,
            -47,
            -227,
            -598,
            -331,
            -100,
            87,
            121,
            -44,
            53,
            -22,
            -54,
            -44,
            -116,
            25,
            88,
            192,
            62,
            69,
            -41,
            -133,
            -218,
            -257,
            -436,
            -273,
            -76,
            352,
            731,
            -24,
            0,
            -352,
            -204,
            -314,
            298,
            231,
            74,
            -134,
            -107,
            -56,
            -30,
            -175,
            -294,
            103,
            377,
            310,
            115,
            -22,
            -32,
            84,
            109,
            -173,
            -365,
            -359,
            -720,
            -156,
            537,
            -41,
            72,
            -162,
            -476,
            -87,
            293,
            113,
            -150,
            -124,
            0,
            -115,
            -126,
            -103,
            95,
            291,
            426,
            270,
            137,
            56,
            66,
            89,
            80,
            -19,
            -98,
            -452,
            -298,
            -443,
            -103,
            166,
            75,
            -115,
            -198,
            93,
            112,
            -210,
            -97,
            -126,
            -34,
            -57,
            -29,
            -119,
            74,
            306,
            356,
            264,
            239,
            25,
            58,
            -54,
            0,
            -91,
            -7,
            -82,
            -25,
            -283,
            325,
            43,
            61,
            -50,
            -476,
            83,
            -84,
            -283,
            54,
            -136,
            34,
            -82,
            -133,
            55,
            99,
            275,
            325,
            149,
            154,
            -78,
            35,
            -68,
            -70,
            -99,
            -210,
            -239,
            -2,
            -340,
            369,
            -185,
            -84,
            -12,
            -378,
            137,
            78,
            -5,
            41,
            -237,
            -192,
            -285,
            -75,
            41,
            183,
            258,
            185,
            -22,
            55,
            -29,
            -23,
            -121,
            -110,
            -169,
            73,
            -61,
            141,
            113,
            223,
            192,
            50,
            -48,
            -378,
            57,
            146,
            7,
            102,
            -123,
            -174,
            -146,
            41,
            -77,
            -27,
            139,
            144,
            220,
            -23,
            16,
            67,
            -48,
            -45,
            -25,
            -77,
            -94,
            110,
            -223,
            378,
            22,
            44,
            32,
            -419,
            331,
            103,
            24,
            187,
            -12,
            -104,
            -163,
            -91,
            -14,
            -122,
            85,
            303,
            136,
            -4,
            86,
            131,
            70,
            56,
            -67,
            -54,
            -14,
            156,
            166,
            466,
            209,
            -78,
            -34,
            266,
            181,
            165,
            -19,
            59,
            62,
            -18,
            82,
            12,
            -5,
            -153,
            158,
            84,
            180,
            158,
            29,
            75,
            125,
            171,
            -66,
            -67,
            190,
            96,
            231,
            182,
            67,
            -22,
            -320,
            153,
            77,
            -158,
            53,
            138,
            97,
            93,
            1,
            -40,
            44,
            -166,
            -59,
            -16,
            16,
            180,
            182,
            79,
            200,
            71,
            22,
            167,
            191,
            287,
            523,
            81,
            -84,
            -23,
            -134,
            -34,
            39,
            114,
            167,
            338,
            62,
            56,
            27,
            3,
            -129,
            -12,
            -37,
            26,
            -18,
            24,
            108,
            48,
            215,
            171,
            215,
            259,
            237,
            558,
            502,
            -95,
            -6,
            -83,
            44,
            -297,
            106,
            311,
            60,
            19,
            5,
            -51,
            -18,
            -101,
            3,
            -57,
            -140,
            72,
            52,
            34,
            154,
            118,
            -6,
            279,
            103,
            203,
            402,
            620,
            204,
            79,
            36,
            35,
            -87,
            -98,
            -16,
            146,
            92,
            -6,
            -91,
            96,
            -66,
            -63,
            -39,
            55,
            -66,
            1,
            -99,
            -33,
            109,
            -3,
            34,
            162,
            189,
            491,
            404,
            481,
            115,
            304,
            10,
            -87,
            55,
            172,
            -374,
            -208,
            -290,
            3,
            -111,
            127,
            68,
            -32,
            -4,
            -114,
            -112,
            -4,
            65,
            -77,
            110,
            239,
            296,
            464,
            310,
            427,
            711,
            150,
            -15,
            -22,
            72,
            38,
            86,
            36,
            234,
            -130,
            291,
            52,
            86,
            112,
            279,
            138,
            121,
            268,
            11,
            117,
            112,
            197,
            189,
            177,
            118,
            473,
            453,
            278,
            486,
            362,
            40,
            71,
            86,
            53,
            -5,
            67,
            60,
            314,
            524,
            350,
            164,
            256,
            332,
            457,
            480,
            617,
            444,
            514,
            366,
            312,
            168,
            149,
            -7,
            296,
            292,
            335,
            111,
            -78,
            43,
            -21,
            -60,
            -33,
            73,
            -71,
            13,
            -57,
            -231,
            -342,
            174,
            132,
            -41,
            34,
            186,
            186,
            -350,
            -71,
            32,
            -28,
            -464,
            -97,
            -198,
            -229,
            -117,
            200,
            -13,
            -65,
            15,
            54,
            13
        ],
        "bias": 702
    },
    {
        "weights": [
            37,
            -46,
            -48,
            -53,
            82,
            -71,
            -7,
            -35,
            -44,
            -68,
            -86,
            -55,
            58,
            -232,
            -239,
            -39,
            -36,
            -77,
            39,
            59,
            -47,
            34,
            -75,
            -61,
            -32,
            -34,
            -18,
            -13,
            26,
            51,
            -9,
            -43,
            25,
            -58,
            -50,
            -343,
            -311,
            -104,
            -259,
            -261,
            -367,
            -272,
            -173,
            -215,
            -432,
            -48,
            -94,
            -306,
            -226,
            -262,
            -213,
            -219,
            12,
            74,
            71,
            46,
            16,
            80,
            62,
            -21,
            32,
            76,
            -245,
            -298,
            -456,
            -477,
            -767,
            -81,
            -374,
            -238,
            -242,
            -492,
            -67,
            -232,
            -368,
            -519,
            -307,
            -306,
            -171,
            -125,
            -72,
            -96,
            59,
            -54,
            -72,
            -85,
            58,
            -10,
            -33,
            310,
            14,
            76,
            134,
            -228,
            -18,
            29,
            112,
            -67,
            323,
            118,
            49,
            225,
            331,
            326,
            230,
            -239,
            -619,
            -328,
            -214,
            -111,
            40,
            -30,
            -25,
            -34,
            -81,
            -6,
            96,
            206,
            121,
            -23,
            99,
            -28,
            108,
            43,
            163,
            -30,
            -19,
            -86,
            -56,
            -129,
            151,
            -30,
            -132,
            -209,
            -51,
            -393,
            -92,
            -152,
            -257,
            -12,
            75,
            30,
            62,
            427,
            174,
            386,
            161,
            136,
            80,
            159,
            104,
            172,
            95,
            72,
            -55,
            30,
            -18,
            -80,
            -175,
            -56,
            -281,
            -333,
            -329,
            -324,
            -325,
            -249,
            91,
            25,
            16,
            19,
            285,
            318,
            192,
            -32,
            266,
            -4,
            217,
            161,
            239,
            247,
            112,
            189,
            139,
            229,
            176,
            26,
            131,
            -71,
            -100,
            -78,
            -186,
            -446,
            -472,
            -75,
            -148,
            -62,
            64,
            268,
            99,
            443,
            49,
            85,
            241,
            157,
            78,
            183,
            187,
            100,
            145,
            240,
            261,
            223,
            112,
            147,
            8,
            67,
            -52,
            -121,
            -270,
            -107,
            -212,
            -371,
            166,
            55,
            -28,
            319,
            102,
            321,
            345,
            237,
            187,
            107,
            208,
            -8,
            76,
            115,
            110,
            43,
            210,
            161,
            176,
            172,
            62,
            -24,
            73,
            19,
            -58,
            -162,
            -153,
            -321,
            -355,
            -35,
            -63,
            286,
            192,
            306,
            468,
            317,
            232,
            223,
            133,
            135,
            -4,
            -44,
            36,
            3,
            312,
            274,
            124,
            159,
            115,
            210,
            179,
            33,
            199,
            -209,
            -246,
            -116,
            -297,
            55,
            132,
            94,
            167,
            394,
            156,
            284,
            271,
            137,
            62,
            -66,
            -132,
            -100,
            -93,
            177,
            266,
            227,
            227,
            205,
            205,
            263,
            293,
            142,
            189,
            123,
            -509,
            -156,
            -502,
            -107,
            89,
            324,
            214,
            536,
            208,
            33,
            2,
            32,
            -90,
            -64,
            64,
            42,
            47,
            -19,
            204,
            236,
            195,
            349,
            260,
            259,
            398,
            167,
            470,
            -146,
            -828,
            -237,
            -352,
            -58,
            48,
            81,
            207,
            328,
            123,
            128,
            -43,
            -43,
            -74,
            33,
            -71,
            -36,
            -46,
            -222,
            35,
            253,
            238,
            244,
            202,
            52,
            155,
            2,
            96,
            -317,
            -628,
            -244,
            -452,
            20,
            34,
            25,
            348,
            218,
            145,
            41,
            -82,
            -38,
            -57,
            -59,
            -71,
            -83,
            -362,
            -1,
            91,
            109,
            189,
            152,
            139,
            89,
            -63,
            -42,
            -200,
            -301,
            -331,
            -553,
            -466,
            -208,
            -24,
            224,
            184,
            371,
            198,
            119,
            32,
            -183,
            -48,
            -114,
            -36,
            -222,
            -133,
            -114,
            90,
            98,
            -11,
            202,
            288,
            233,
            124,
            67,
            -62,
            118,
            -302,
            -84,
            -483,
            32,
            -72,
            118,
            295,
            111,
            88,
            78,
            88,
            -33,
            -246,
            -237,
            -210,
            -129,
            -53,
            2,
            -117,
            41,
            18,
            243,
            209,
            125,
            267,
            291,
            343,
            216,
            -73,
            -642,
            -331,
            -131,
            3,
            -62,
            426,
            26,
            270,
            65,
            -31,
            -8,
            -60,
            -70,
            -130,
            -107,
            61,
            114,
            -67,
            76,
            116,
            188,
            271,
            278,
            176,
            -42,
            5,
            39,
            83,
            -584,
            -465,
            -278,
            -31,
            11,
            -39,
            -18,
            315,
            -201,
            -183,
            -11,
            -22,
            -199,
            -256,
            -99,
            9,
            -37,
            -27,
            89,
            152,
            243,
            207,
            110,
            32,
            222,
            3,
            38,
            -209,
            -389,
            -493,
            -25,
            37,
            28,
            126,
            279,
            163,
            -22,
            -66,
            -136,
            -181,
            -115,
            -155,
            -67,
            -223,
            -114,
            -103,
            136,
            126,
            204,
            186,
            160,
            -5,
            32,
            -71,
            -345,
            -427,
            -568,
            -195,
            -172,
            56,
            -34,
            -99,
            306,
            112,
            173,
            -81,
            -141,
            -61,
            -58,
            -98,
            -269,
            -161,
            -142,
            41,
            -38,
            42,
            96,
            -14,
            159,
            -19,
            -31,
            -199,
            -144,
            -31,
            -378,
            -156,
            50,
            -28,
            -67,
            -31,
            229,
            98,
            -31,
            -60,
            -83,
            -58,
            -68,
            -122,
            -121,
            -219,
            -71,
            112,
            4,
            19,
            -15,
            -133,
            2,
            -129,
            -252,
            -338,
            -153,
            131,
            -189,
            -269,
            -12,
            -51,
            72,
            30,
            16,
            48,
            -98,
            -146,
            -171,
            -104,
            -234,
            -107,
            -142,
            -61,
            -76,
            -36,
            -131,
            53,
            -42,
            -65,
            -113,
            -275,
            -194,
            -243,
            -366,
            -174,
            -139,
            -379,
            -51,
            -11,
            0,
            12,
            145,
            32,
            -78,
            -192,
            -94,
            -52,
            -2,
            -127,
            -94,
            27,
            -45,
            -48,
            8,
            37,
            -46,
            -209,
            -6,
            -193,
            -256,
            -52,
            -175,
            59,
            -73,
            -86,
            -69,
            87,
            33,
            -10,
            237,
            129,
            -5,
            87,
            115,
            -167,
            -98,
            -22,
            -44,
            -77,
            -74,
            18,
            -45,
            -144,
            -105,
            23,
            -211,
            -339,
            -339,
            -187,
            -411,
            56,
            -451,
            -167,
            -6,
            23,
            -62,
            -118,
            583,
            458,
            395,
            306,
            404,
            246,
            -92,
            175,
            157,
            -57,
            168,
            85,
            -42,
            122,
            110,
            -218,
            -219,
            -12,
            91,
            -161,
            -66,
            -185,
            -318,
            15,
            -44,
            -31,
            63,
            -7,
            -242,
            263,
            587,
            237,
            380,
            526,
            540,
            450,
            583,
            487,
            412,
            422,
            288,
            301,
            259,
            257,
            418,
            200,
            303,
            198,
            -91,
            51,
            32,
            -51,
            67,
            10,
            -21,
            -79,
            33,
            -59,
            286,
            420,
            545,
            564,
            354,
            368,
            344,
            249,
            549,
            533,
            298,
            545,
            700,
            522,
            557,
            346,
            358,
            293,
            -5,
            33,
            44,
            -60,
            54,
            -60,
            7,
            -59,
            -42,
            -15,
            99,
            161,
            279,
            490,
            190,
            338,
            157,
            309,
            406,
            279,
            271,
            220,
            527,
            310,
            297,
            265,
            289,
            259,
            -75,
            -13,
            22,
            -66,
            39
        ],
        "bias": 179
    },
    {
        "weights": [
            -71,
            -27,
            37,
            56,
            60,
            -8,
            -29,
            14,
            -18,
            -48,
            4,
            -52,
            -26,
            199,
            72,
            -57,
            -36,
            -69,
            61,
            -15,
            1,
            16,
            -86,
            -37,
            -86,
            -52,
            -19,
            15,
            -20,
            71,
            23,
            29,
            11,
            -28,
            134,
            400,
            319,
            388,
            128,
            373,
            531,
            458,
            132,
            453,
            236,
            334,
            400,
            294,
            326,
            365,
            232,
            130,
            -54,
            -15,
            -75,
            -44,
            -44,
            53,
            -69,
            -69,
            211,
            -71,
            170,
            396,
            440,
            86,
            462,
            170,
            184,
            144,
            -5,
            -36,
            -5,
            166,
            177,
            238,
            272,
            95,
            396,
            474,
            46,
            -251,
            76,
            66,
            16,
            -25,
            261,
            81,
            51,
            153,
            242,
            263,
            336,
            321,
            317,
            457,
            280,
            222,
            138,
            127,
            94,
            48,
            160,
            65,
            92,
            36,
            158,
            398,
            331,
            -447,
            87,
            27,
            -25,
            10,
            -13,
            60,
            143,
            87,
            -13,
            260,
            226,
            193,
            370,
            385,
            137,
            325,
            255,
            336,
            300,
            221,
            235,
            208,
            42,
            16,
            -130,
            -38,
            -230,
            -61,
            -63,
            -1,
            39,
            -84,
            -5,
            228,
            230,
            -225,
            36,
            48,
            131,
            34,
            121,
            24,
            127,
            301,
            201,
            250,
            145,
            125,
            81,
            274,
            96,
            137,
            -102,
            -178,
            -47,
            51,
            275,
            9,
            -33,
            -80,
            -96,
            238,
            -83,
            -273,
            -153,
            -19,
            11,
            12,
            80,
            83,
            148,
            294,
            181,
            253,
            240,
            205,
            151,
            154,
            74,
            81,
            33,
            114,
            -16,
            232,
            -333,
            -101,
            41,
            295,
            -446,
            -255,
            48,
            7,
            -16,
            0,
            14,
            11,
            56,
            65,
            142,
            85,
            184,
            252,
            55,
            90,
            1,
            -13,
            -77,
            -8,
            -99,
            13,
            66,
            -60,
            -132,
            79,
            43,
            -38,
            -1,
            -118,
            -76,
            -106,
            -89,
            15,
            -77,
            47,
            -27,
            -60,
            78,
            165,
            109,
            9,
            211,
            -61,
            -46,
            -16,
            -21,
            167,
            -40,
            -107,
            -5,
            -117,
            55,
            205,
            18,
            -91,
            -136,
            -213,
            -35,
            -90,
            -44,
            87,
            36,
            107,
            7,
            -64,
            -95,
            -40,
            104,
            -102,
            -157,
            -177,
            -175,
            -40,
            -19,
            -33,
            31,
            56,
            182,
            76,
            -138,
            -318,
            -36,
            -92,
            -194,
            -71,
            106,
            -85,
            52,
            114,
            -13,
            -6,
            -40,
            -20,
            -36,
            92,
            101,
            -157,
            -136,
            -167,
            -37,
            -124,
            21,
            -114,
            44,
            338,
            234,
            -461,
            -160,
            299,
            -39,
            -274,
            -379,
            -145,
            -64,
            -73,
            -136,
            -25,
            86,
            11,
            30,
            8,
            -49,
            333,
            167,
            -174,
            -233,
            -155,
            -135,
            -82,
            35,
            70,
            -7,
            183,
            388,
            -104,
            -86,
            198,
            -55,
            -204,
            -204,
            -237,
            -133,
            42,
            198,
            85,
            -19,
            72,
            -22,
            29,
            18,
            369,
            264,
            -29,
            -157,
            48,
            -24,
            -21,
            26,
            115,
            215,
            542,
            555,
            -137,
            -578,
            274,
            -21,
            -218,
            -283,
            96,
            -113,
            59,
            155,
            45,
            20,
            178,
            -3,
            69,
            217,
            272,
            167,
            117,
            44,
            -14,
            -21,
            -3,
            -82,
            -19,
            55,
            460,
            262,
            -115,
            -588,
            -336,
            46,
            -155,
            -250,
            -185,
            -244,
            -22,
            89,
            -112,
            -18,
            38,
            131,
            133,
            244,
            264,
            102,
            179,
            -45,
            -103,
            -43,
            -135,
            -134,
            207,
            -104,
            25,
            204,
            -89,
            -255,
            6,
            71,
            138,
            -213,
            -402,
            -157,
            97,
            -114,
            2,
            58,
            -12,
            -17,
            79,
            201,
            299,
            136,
            -21,
            -79,
            -116,
            -73,
            -54,
            43,
            -120,
            -63,
            90,
            188,
            223,
            -540,
            -189,
            13,
            86,
            450,
            -202,
            -348,
            -31,
            -96,
            -4,
            20,
            32,
            66,
            307,
            213,
            52,
            47,
            -167,
            -120,
            -125,
            27,
            -17,
            -28,
            -24,
            -71,
            163,
            76,
            -248,
            -380,
            -350,
            -2,
            63,
            -295,
            46,
            -164,
            9,
            -43,
            72,
            -38,
            121,
            244,
            189,
            73,
            -126,
            -90,
            -146,
            31,
            46,
            -24,
            170,
            -76,
            23,
            71,
            74,
            190,
            -266,
            -200,
            -25,
            -10,
            -66,
            13,
            157,
            -152,
            -155,
            112,
            -13,
            108,
            103,
            216,
            115,
            43,
            -116,
            -206,
            28,
            102,
            118,
            145,
            96,
            -63,
            -43,
            228,
            173,
            -123,
            -111,
            -354,
            -273,
            -66,
            75,
            -170,
            46,
            -198,
            167,
            126,
            105,
            75,
            183,
            288,
            94,
            175,
            -6,
            80,
            30,
            183,
            152,
            222,
            241,
            147,
            180,
            241,
            285,
            70,
            -381,
            -361,
            -146,
            -46,
            199,
            -283,
            -138,
            135,
            107,
            169,
            290,
            260,
            129,
            333,
            118,
            148,
            262,
            93,
            149,
            151,
            107,
            262,
            182,
            192,
            416,
            166,
            338,
            -300,
            38,
            70,
            36,
            26,
            25,
            -154,
            61,
            124,
            32,
            154,
            256,
            122,
            79,
            144,
            185,
            212,
            335,
            325,
            303,
            191,
            116,
            178,
            94,
            77,
            -33,
            201,
            -1,
            -86,
            9,
            73,
            -87,
            67,
            24,
            -65,
            136,
            -84,
            -82,
            73,
            23,
            -20,
            47,
            142,
            89,
            243,
            284,
            216,
            293,
            252,
            112,
            108,
            106,
            43,
            70,
            165,
            143,
            -74,
            117,
            -65,
            42,
            -76,
            -10,
            161,
            548,
            -17,
            -107,
            -210,
            -100,
            145,
            38,
            121,
            76,
            229,
            180,
            286,
            260,
            102,
            99,
            60,
            183,
            32,
            -48,
            -21,
            153,
            -186,
            -425,
            -277,
            -40,
            72,
            39,
            142,
            166,
            307,
            -49,
            -92,
            -1,
            -90,
            -4,
            87,
            88,
            247,
            123,
            161,
            192,
            132,
            -36,
            122,
            66,
            -117,
            -62,
            -190,
            280,
            -41,
            -313,
            -77,
            -67,
            -12,
            82,
            -67,
            -58,
            -157,
            47,
            102,
            50,
            163,
            83,
            77,
            -59,
            40,
            74,
            -122,
            -107,
            111,
            -50,
            -5,
            44,
            83,
            -123,
            -209,
            31,
            201,
            79,
            -83,
            -53,
            -67,
            -59,
            44,
            55,
            256,
            174,
            231,
            69,
            44,
            125,
            115,
            75,
            101,
            96,
            113,
            16,
            76,
            77,
            104,
            -4,
            87,
            -24,
            -1,
            -19,
            -43,
            -77,
            -65,
            14,
            -15,
            -51,
            82,
            1,
            77,
            -162,
            -141,
            -29,
            -14,
            41,
            -202,
            162,
            37,
            -306,
            -34,
            -27,
            -75,
            -306,
            -96,
            -125,
            -278,
            -61,
            -176,
            76,
            83,
            1,
            -85,
            30
        ],
        "bias": -541
    },
    {
        "weights": [
            -19,
            60,
            77,
            26,
            48,
            -6,
            81,
            49,
            -15,
            -64,
            56,
            -11,
            -31,
            25,
            130,
            27,
            19,
            32,
            43,
            -60,
            85,
            62,
            -66,
            68,
            45,
            -36,
            80,
            -51,
            69,
            -8,
            9,
            -26,
            45,
            55,
            101,
            158,
            156,
            -218,
            -84,
            -301,
            -256,
            -326,
            -48,
            -178,
            352,
            -123,
            -366,
            -133,
            -240,
            -22,
            137,
            96,
            -40,
            -42,
            31,
            -21,
            9,
            32,
            -41,
            55,
            -154,
            53,
            251,
            75,
            121,
            375,
            70,
            158,
            173,
            92,
            93,
            -87,
            139,
            195,
            152,
            -132,
            29,
            74,
            -324,
            34,
            209,
            267,
            -52,
            38,
            9,
            67,
            -8,
            -40,
            -77,
            -215,
            -7,
            109,
            50,
            382,
            164,
            46,
            81,
            50,
            -34,
            28,
            -130,
            17,
            157,
            -88,
            101,
            327,
            617,
            212,
            43,
            380,
            25,
            83,
            55,
            -42,
            -75,
            46,
            -29,
            -137,
            65,
            58,
            -74,
            236,
            289,
            90,
            210,
            -109,
            111,
            28,
            33,
            85,
            90,
            92,
            -38,
            -60,
            -153,
            -131,
            304,
            489,
            98,
            39,
            -64,
            -32,
            32,
            -289,
            -5,
            -268,
            -291,
            80,
            -15,
            -18,
            46,
            66,
            -18,
            -17,
            -21,
            -95,
            74,
            -17,
            -21,
            1,
            32,
            2,
            -20,
            -132,
            -21,
            373,
            75,
            -75,
            -35,
            49,
            -347,
            -185,
            68,
            98,
            16,
            53,
            23,
            120,
            14,
            21,
            112,
            -51,
            23,
            -57,
            -11,
            -93,
            -108,
            7,
            -44,
            44,
            -161,
            -138,
            330,
            538,
            -72,
            -109,
            -27,
            -23,
            11,
            -65,
            225,
            152,
            35,
            -10,
            318,
            48,
            162,
            42,
            -75,
            -57,
            -143,
            -111,
            24,
            -143,
            30,
            -53,
            -87,
            87,
            70,
            95,
            313,
            561,
            -123,
            89,
            -130,
            -300,
            -69,
            -8,
            152,
            154,
            299,
            277,
            124,
            119,
            136,
            172,
            193,
            -4,
            -98,
            -86,
            -39,
            -71,
            -76,
            68,
            89,
            18,
            148,
            378,
            440,
            265,
            636,
            327,
            52,
            -199,
            -390,
            -36,
            88,
            315,
            253,
            156,
            272,
            294,
            149,
            222,
            210,
            48,
            35,
            -118,
            -41,
            -54,
            -12,
            35,
            96,
            218,
            256,
            408,
            378,
            759,
            193,
            -196,
            -145,
            -176,
            -234,
            215,
            288,
            293,
            368,
            166,
            183,
            305,
            254,
            218,
            250,
            253,
            100,
            -133,
            -86,
            29,
            -6,
            65,
            115,
            314,
            182,
            379,
            416,
            340,
            166,
            259,
            -215,
            -160,
            -86,
            -65,
            349,
            410,
            223,
            287,
            214,
            132,
            24,
            90,
            140,
            213,
            142,
            -100,
            -61,
            -48,
            38,
            88,
            -81,
            -37,
            211,
            147,
            458,
            364,
            568,
            -322,
            -83,
            14,
            -145,
            38,
            292,
            385,
            14,
            138,
            -26,
            -136,
            -85,
            -223,
            -190,
            -154,
            -271,
            -35,
            -100,
            -46,
            -174,
            -45,
            37,
            -51,
            -144,
            -288,
            -35,
            275,
            510,
            -224,
            22,
            -42,
            -108,
            -97,
            -248,
            -197,
            -307,
            -453,
            -242,
            -239,
            -273,
            -316,
            -135,
            -11,
            -108,
            -48,
            -212,
            -128,
            -148,
            -43,
            -139,
            -31,
            -27,
            -222,
            -98,
            224,
            629,
            306,
            -35,
            66,
            -183,
            -121,
            -574,
            -804,
            -737,
            -548,
            -550,
            -497,
            -167,
            -160,
            -126,
            81,
            -16,
            9,
            -107,
            -116,
            -164,
            -72,
            -69,
            -260,
            -196,
            -260,
            -110,
            232,
            352,
            21,
            -34,
            -160,
            -286,
            -281,
            -789,
            -904,
            -755,
            -842,
            -363,
            -228,
            -46,
            -45,
            36,
            182,
            21,
            -88,
            -111,
            -107,
            -61,
            -39,
            -118,
            -189,
            -229,
            -260,
            93,
            111,
            534,
            291,
            -69,
            19,
            -309,
            39,
            -585,
            -755,
            -414,
            -291,
            -118,
            11,
            -3,
            16,
            219,
            131,
            110,
            38,
            50,
            -53,
            -102,
            -13,
            -138,
            -22,
            -27,
            43,
            141,
            348,
            462,
            374,
            -15,
            45,
            -117,
            -13,
            -335,
            -145,
            -40,
            -132,
            -35,
            65,
            54,
            94,
            207,
            147,
            -44,
            -24,
            19,
            -20,
            -127,
            16,
            -116,
            -75,
            16,
            -127,
            107,
            340,
            544,
            -27,
            80,
            -15,
            -153,
            -60,
            -8,
            71,
            30,
            141,
            -25,
            106,
            211,
            184,
            206,
            149,
            36,
            12,
            -45,
            55,
            29,
            0,
            -120,
            -215,
            89,
            100,
            428,
            208,
            12,
            253,
            59,
            63,
            37,
            -92,
            179,
            65,
            146,
            190,
            193,
            193,
            190,
            110,
            128,
            144,
            78,
            41,
            -110,
            12,
            10,
            -11,
            -165,
            80,
            98,
            139,
            -45,
            410,
            229,
            10,
            47,
            -173,
            100,
            41,
            114,
            243,
            86,
            217,
            209,
            172,
            138,
            61,
            57,
            68,
            -51,
            44,
            -63,
            -96,
            70,
            -5,
            14,
            98,
            126,
            141,
            130,
            83,
            -115,
            -18,
            62,
            136,
            264,
            157,
            -61,
            -31,
            123,
            8,
            11,
            73,
            27,
            167,
            47,
            163,
            128,
            20,
            17,
            101,
            74,
            108,
            75,
            67,
            98,
            326,
            155,
            294,
            -114,
            -8,
            67,
            -45,
            142,
            68,
            29,
            -279,
            16,
            13,
            -12,
            -17,
            -42,
            29,
            222,
            106,
            101,
            50,
            -17,
            -4,
            71,
            -74,
            -114,
            -37,
            -40,
            22,
            229,
            100,
            -134,
            59,
            -2,
            -8,
            -8,
            -242,
            73,
            38,
            7,
            -65,
            59,
            136,
            131,
            53,
            124,
            172,
            49,
            121,
            197,
            -67,
            8,
            142,
            198,
            68,
            178,
            97,
            313,
            229,
            -269,
            0,
            31,
            63,
            145,
            -333,
            -416,
            -315,
            -63,
            -238,
            32,
            56,
            -3,
            146,
            201,
            208,
            283,
            267,
            306,
            154,
            317,
            177,
            40,
            207,
            119,
            -322,
            297,
            212,
            13,
            31,
            -48,
            -18,
            -50,
            173,
            -341,
            -406,
            47,
            -222,
            -67,
            -95,
            143,
            -22,
            74,
            133,
            230,
            335,
            212,
            280,
            110,
            78,
            -20,
            -29,
            108,
            -120,
            8,
            -56,
            -14,
            -1,
            44,
            -17,
            -31,
            -59,
            -29,
            -448,
            -315,
            -278,
            -485,
            -260,
            -336,
            -186,
            -30,
            -58,
            -257,
            -110,
            -57,
            -153,
            -151,
            -242,
            -304,
            -240,
            108,
            -50,
            34,
            -5,
            34,
            -33,
            54,
            -67,
            -22,
            23,
            -16,
            -133,
            -55,
            -68,
            -161,
            -225,
            -101,
            -143,
            -281,
            -149,
            -130,
            -50,
            -144,
            -66,
            -188,
            193,
            -99,
            -201,
            -165,
            25,
            -60,
            -6,
            2,
            85
        ],
        "bias": -257
    },
    {
        "weights": [
            -41,
            -22,
            77,
            22,
            -77,
            -69,
            79,
            12,
            -64,
            -34,
            42,
            38,
            -38,
            41,
            -20,
            85,
            74,
            -39,
            -49,
            -8,
            68,
            -5,
            -3,
            40,
            -68,
            0,
            77,
            43,
            51,
            62,
            -79,
            -35,
            -59,
            -46,
            -48,
            -82,
            68,
            -115,
            69,
            79,
            -59,
            -246,
            190,
            -39,
            142,
            -182,
            -71,
            -86,
            -45,
            -68,
            43,
            -42,
            21,
            39,
            71,
            -41,
            -73,
            18,
            11,
            -9,
            -223,
            47,
            -55,
            -68,
            -38,
            352,
            -135,
            217,
            73,
            178,
            -45,
            -294,
            -155,
            -10,
            129,
            18,
            -36,
            100,
            -206,
            -11,
            -7,
            22,
            -28,
            24,
            -42,
            12,
            49,
            -78,
            86,
            304,
            -4,
            31,
            271,
            249,
            386,
            439,
            674,
            491,
            576,
            255,
            182,
            59,
            -157,
            39,
            191,
            -63,
            -157,
            -202,
            -2,
            258,
            44,
            39,
            -50,
            11,
            38,
            -41,
            -136,
            255,
            256,
            290,
            331,
            453,
            548,
            384,
            387,
            222,
            368,
            345,
            145,
            209,
            244,
            24,
            1,
            40,
            -315,
            -197,
            -68,
            102,
            275,
            -29,
            77,
            -39,
            55,
            276,
            72,
            -6,
            213,
            362,
            281,
            211,
            271,
            279,
            231,
            296,
            208,
            340,
            253,
            108,
            62,
            -121,
            22,
            26,
            -4,
            -178,
            -43,
            182,
            -98,
            -60,
            -72,
            14,
            155,
            366,
            521,
            320,
            467,
            89,
            263,
            274,
            355,
            380,
            384,
            446,
            465,
            372,
            313,
            304,
            300,
            212,
            129,
            168,
            156,
            -145,
            104,
            33,
            -42,
            -16,
            -43,
            243,
            162,
            422,
            245,
            150,
            214,
            239,
            300,
            263,
            371,
            301,
            406,
            313,
            334,
            333,
            308,
            398,
            249,
            260,
            312,
            197,
            175,
            19,
            -284,
            12,
            -108,
            52,
            71,
            215,
            6,
            144,
            190,
            71,
            166,
            146,
            152,
            204,
            216,
            145,
            251,
            325,
            535,
            364,
            493,
            317,
            418,
            391,
            317,
            76,
            327,
            277,
            66,
            -97,
            329,
            78,
            -18,
            149,
            -17,
            150,
            163,
            -67,
            -115,
            -97,
            58,
            1,
            -61,
            -45,
            80,
            86,
            374,
            362,
            374,
            381,
            380,
            262,
            240,
            107,
            239,
            110,
            243,
            227,
            -345,
            163,
            -91,
            -115,
            66,
            39,
            -122,
            -85,
            -47,
            -174,
            -303,
            -221,
            -181,
            -181,
            -242,
            -100,
            131,
            48,
            205,
            117,
            20,
            -79,
            12,
            -1,
            112,
            163,
            7,
            278,
            200,
            193,
            -33,
            280,
            -15,
            -285,
            -151,
            -303,
            -151,
            -318,
            -278,
            -247,
            -343,
            -329,
            -510,
            -238,
            -236,
            -236,
            -264,
            -56,
            -59,
            -107,
            -220,
            -196,
            -87,
            -271,
            -231,
            -15,
            429,
            -239,
            -54,
            -42,
            -104,
            -261,
            -249,
            -402,
            -342,
            -286,
            -149,
            -239,
            -169,
            -264,
            -264,
            -357,
            -116,
            -141,
            -282,
            -231,
            -78,
            -36,
            -59,
            -232,
            -381,
            -573,
            -406,
            18,
            193,
            -315,
            62,
            -61,
            117,
            -32,
            -263,
            -325,
            -193,
            -101,
            -103,
            -49,
            -140,
            -248,
            -283,
            -186,
            -41,
            -233,
            -57,
            -4,
            88,
            52,
            -21,
            -146,
            -282,
            -382,
            -248,
            -218,
            -169,
            66,
            47,
            -3,
            -43,
            31,
            -209,
            -226,
            -79,
            4,
            32,
            -35,
            -158,
            -299,
            -204,
            -51,
            -24,
            -153,
            -174,
            -118,
            5,
            -9,
            14,
            -144,
            -269,
            -60,
            34,
            -10,
            145,
            -84,
            -15,
            83,
            319,
            -178,
            229,
            -86,
            73,
            117,
            -125,
            -117,
            -64,
            -324,
            -124,
            -133,
            -291,
            -76,
            -198,
            -157,
            20,
            -52,
            -41,
            -164,
            -18,
            1,
            211,
            -203,
            77,
            115,
            41,
            -24,
            342,
            361,
            294,
            23,
            -217,
            -205,
            -78,
            -151,
            -104,
            -139,
            -98,
            -43,
            -266,
            -274,
            -277,
            -27,
            -130,
            -9,
            -125,
            93,
            81,
            -24,
            88,
            -75,
            39,
            262,
            -36,
            5,
            -113,
            476,
            443,
            -114,
            -110,
            -347,
            -397,
            -290,
            -179,
            -141,
            -140,
            -336,
            -389,
            -249,
            -125,
            -65,
            -24,
            -54,
            -64,
            -46,
            -100,
            98,
            -104,
            -49,
            8,
            -21,
            61,
            1,
            295,
            51,
            317,
            89,
            -204,
            -424,
            -384,
            -409,
            -363,
            -310,
            -342,
            -209,
            -378,
            -154,
            26,
            45,
            -107,
            85,
            -52,
            104,
            231,
            54,
            95,
            118,
            83,
            379,
            -17,
            15,
            -129,
            25,
            426,
            244,
            -96,
            -101,
            -7,
            -94,
            -47,
            -208,
            -81,
            -47,
            84,
            11,
            -37,
            139,
            -9,
            107,
            97,
            125,
            270,
            110,
            210,
            435,
            215,
            3,
            38,
            293,
            -177,
            95,
            84,
            567,
            314,
            112,
            136,
            59,
            188,
            131,
            269,
            224,
            69,
            39,
            93,
            93,
            78,
            100,
            36,
            217,
            293,
            130,
            62,
            -4,
            -141,
            84,
            15,
            -1,
            211,
            697,
            248,
            301,
            147,
            346,
            223,
            141,
            161,
            353,
            154,
            159,
            165,
            127,
            127,
            -34,
            64,
            185,
            11,
            195,
            177,
            377,
            -78,
            132,
            -8,
            -32,
            21,
            18,
            236,
            348,
            134,
            97,
            400,
            272,
            312,
            307,
            64,
            110,
            169,
            122,
            116,
            186,
            197,
            103,
            107,
            206,
            137,
            -98,
            249,
            68,
            -145,
            -180,
            38,
            -32,
            -17,
            -12,
            100,
            157,
            200,
            200,
            316,
            361,
            256,
            241,
            403,
            415,
            288,
            214,
            263,
            183,
            158,
            166,
            -4,
            -6,
            34,
            -94,
            388,
            311,
            195,
            145,
            -219,
            40,
            -25,
            43,
            40,
            473,
            550,
            228,
            293,
            321,
            204,
            193,
            109,
            447,
            374,
            486,
            333,
            268,
            160,
            298,
            79,
            22,
            82,
            359,
            49,
            164,
            117,
            60,
            -2,
            32,
            55,
            86,
            56,
            175,
            232,
            288,
            297,
            284,
            597,
            419,
            348,
            393,
            534,
            312,
            264,
            249,
            180,
            223,
            248,
            221,
            -155,
            238,
            370,
            276,
            268,
            -38,
            57,
            -86,
            0,
            -14,
            -32,
            -28,
            -423,
            -136,
            214,
            176,
            283,
            412,
            325,
            430,
            137,
            548,
            511,
            427,
            427,
            398,
            223,
            495,
            152,
            120,
            375,
            -85,
            -65,
            -78,
            65,
            -25,
            27,
            -3,
            -20,
            -17,
            -66,
            199,
            273,
            336,
            398,
            270,
            239,
            36,
            271,
            354,
            125,
            103,
            226,
            614,
            66,
            161,
            42,
            -250,
            25,
            40,
            -39,
            30,
            -59,
            41
        ],
        "bias": 93
    },
    {
        "weights": [
            -55,
            -74,
            3,
            -14,
            -65,
            -25,
            -23,
            7,
            -10,
            56,
            -56,
            77,
            0,
            -43,
            184,
            -26,
            1,
            80,
            41,
            69,
            84,
            70,
            -64,
            10,
            -8,
            65,
            -28,
            6,
            -49,
            -85,
            -29,
            -37,
            51,
            -58,
            -135,
            -338,
            -46,
            -161,
            77,
            -254,
            -182,
            -288,
            -3,
            41,
            -248,
            -86,
            -135,
            64,
            -76,
            -321,
            -216,
            -178,
            -35,
            10,
            55,
            46,
            -47,
            -27,
            66,
            80,
            -202,
            -70,
            113,
            -200,
            -123,
            311,
